{"layers":[{"W":[[-0.09437534958124161,0.3348069489002228,0.026542266830801964,-0.06523173302412033,-0.23767317831516266,-0.1635904759168625,-0.25304001569747925,0.31975409388542175,0.12092164903879166,0.10237766057252884,-0.416486531496048,0.3887714147567749,0.30646950006484985,-0.1140705943107605,-0.2555001676082611,-0.41346973180770874,-0.3491594195365906,0.09432388097047806,0.023752456530928612,-0.3318867087364197,0.11608830094337463,-0.2562694251537323,-0.2679632008075714,-0.23023389279842377,-0.010895423591136932,0.2602294981479645,-0.33170443773269653,-0.032281264662742615,0.10495903342962265,-0.3111983835697174,0.1511290967464447,-0.17800937592983246],[-0.3912757635116577,0.27018359303474426,0.18079090118408203,0.08695923537015915,-0.1779445856809616,-0.19068679213523865,0.16707681119441986,0.03558782860636711,-0.24090591073036194,-0.12209690362215042,-0.41612204909324646,0.3522990345954895,-0.1970582753419876,0.19891902804374695,-0.19979172945022583,-0.16348715126514435,-0.1416141837835312,-0.12883350253105164,0.315499871969223,0.0396401584148407,0.35017797350883484,0.1733645349740982,0.00505658658221364,0.2301907241344452,-0.35071587562561035,-0.12436430901288986,-0.43843233585357666,-0.08713333308696747,-0.04051871970295906,-0.21573638916015625,0.3088339865207672,-0.11080718040466309],[-0.21731266379356384,0.09331897646188736,-0.3521145284175873,0.10666726529598236,-0.34307408332824707,0.38263624906539917,0.2687825560569763,-0.12992185354232788,-0.3086172640323639,0.18775218725204468,0.09955161809921265,0.23752351105213165,0.2761741578578949,-0.20847651362419128,-0.10649875551462173,-0.4097670912742615,0.11374150216579437,0.12314504384994507,-0.05300411954522133,-0.4487227201461792,-0.09121759235858917,-0.19529353082180023,0.0767635852098465,0.07498680055141449,0.19190046191215515,0.07685016840696335,-0.23228444159030914,0.22172129154205322,0.14561861753463745,0.06282752752304077,0.2760094404220581,0.058349769562482834],[0.019365260377526283,-0.04276951402425766,-0.46019282937049866,-0.4085180461406708,-0.28090816736221313,0.18131710588932037,-0.11672507971525192,0.08024221658706665,0.357744961977005,-0.23118895292282104,-0.14614826440811157,0.24197247624397278,-0.18909792602062225,-0.21133577823638916,-0.18214967846870422,-0.4354924261569977,0.10151013731956482,0.2865179479122162,0.09433187544345856,0.07092320919036865,0.2638109028339386,-0.1560773253440857,0.17410732805728912,-0.13671576976776123,0.28986886143684387,0.34339311718940735,-0.30575066804885864,-0.3149976134300232,-0.14662542939186096,-0.06631176173686981,0.30681800842285156,0.20931829512119293],[-0.28117477893829346,0.08074508607387543,-0.19188538193702698,-0.3293865919113159,-0.22793637216091156,-0.05540527403354645,0.3747203052043915,-0.05610058829188347,0.07525699585676193,0.19188672304153442,-0.17504063248634338,0.4009832739830017,0.4046834111213684,-0.09022992849349976,-0.03839888051152229,-0.3233919143676758,-0.34453484416007996,-0.274110347032547,0.14300177991390228,-0.2151840329170227,-0.32669055461883545,-0.17691351473331451,0.12943127751350403,-0.3444061577320099,-0.2772250771522522,0.015431058593094349,0.3366253077983856,-0.29710182547569275,0.08749373257160187,0.2375079095363617,-0.1760006994009018,0.2244945615530014],[-0.14136062562465668,0.018530195578932762,0.22870633006095886,0.16896800696849823,-0.2865622341632843,0.1576043665409088,-0.19312550127506256,-0.29246455430984497,-0.37613925337791443,-0.0539102740585804,0.17046098411083221,-0.4104069173336029,-0.040035709738731384,-0.2702401280403137,0.03215137496590614,-0.040942899882793427,0.31657764315605164,-0.1283109039068222,0.24465371668338776,-0.08835551887750626,-0.17400245368480682,-0.32471251487731934,0.4120132029056549,0.4004002809524536,-0.2171185165643692,0.0244329571723938,0.3856542110443115,0.16246160864830017,0.046188488602638245,-0.19216299057006836,-0.36995401978492737,0.220956489443779],[0.2118568867444992,0.1559499204158783,-0.2148655652999878,-0.2071693241596222,0.10822349041700363,0.32043907046318054,0.3483467996120453,0.27271515130996704,0.13236142694950104,-0.318901002407074,-0.2781818211078644,0.3549880385398865,0.16197140514850616,-0.25340381264686584,-0.28454267978668213,-0.030359262600541115,-0.4807189106941223,-0.19725796580314636,0.09791368246078491,-0.013400521129369736,0.14501692354679108,-0.26520681381225586,0.06469015032052994,-0.20234408974647522,-0.19733066856861115,0.26687124371528625,0.1349303275346756,0.31592875719070435,0.07414420694112778,0.06769885867834091,-0.1932283490896225,-0.028999589383602142],[-0.14679405093193054,-0.11969391256570816,0.20500342547893524,-0.2109210342168808,0.34800955653190613,0.12112150341272354,0.1618262380361557,-0.02708285115659237,0.11340339481830597,-0.0626906231045723,-0.29519444704055786,0.21381288766860962,-0.15625262260437012,-0.24782121181488037,0.06428484618663788,-0.4244827628135681,0.1406729519367218,0.3641105890274048,0.2914973497390747,-0.2835961580276489,-0.35164061188697815,0.3642328381538391,-0.19204460084438324,0.15933004021644592,0.3864485025405884,0.2987692654132843,-0.32206711173057556,-0.20417970418930054,0.29686254262924194,-0.13953809440135956,-0.27308106422424316,0.01215110532939434],[0.35937368869781494,0.1929510086774826,-0.0861261710524559,-0.41594070196151733,0.08425430953502655,0.37970325350761414,-0.18893757462501526,0.07269413769245148,0.3292742669582367,0.21168768405914307,0.05992129445075989,0.18317285180091858,-0.007780904415994883,-0.061263661831617355,0.17781881988048553,0.030058665201067924,0.08360235393047333,0.3330059051513672,0.07495180517435074,-0.2159857153892517,0.19069641828536987,0.08522050082683563,0.029316123574972153,0.04095577821135521,0.23895606398582458,-0.04267435520887375,-0.07188446074724197,-0.4058651626110077,0.08059461414813995,-0.25870850682258606,-0.11188231408596039,0.09232663363218307],[-0.14212945103645325,0.129129558801651,-0.46642184257507324,-0.4494081437587738,0.20871253311634064,-0.035791028290987015,-0.19165728986263275,0.08151719719171524,0.2211553454399109,-0.19427324831485748,-0.0029390836134552956,-0.22060586512088776,-0.22565945982933044,0.10561732202768326,0.05688190832734108,-0.0957813635468483,-0.05366714671254158,0.39610928297042847,0.09559353440999985,-0.3097487688064575,0.23363517224788666,-0.20470991730690002,-0.19245122373104095,-0.43536266684532166,-0.3365543782711029,0.38878926634788513,0.17938579618930817,0.06167948246002197,-0.020051324740052223,-0.20660649240016937,-0.15956024825572968,-0.11470836400985718],[0.12262240797281265,0.22057892382144928,-0.017530854791402817,-0.2868157923221588,0.4071069359779358,0.2103889286518097,0.12027998268604279,0.14754043519496918,0.01860077679157257,-0.09842059761285782,-0.16811388731002808,0.2487921416759491,-0.26266834139823914,-0.179934561252594,-0.2820928990840912,-0.5063263773918152,0.034908801317214966,0.2049570083618164,0.06012802571058273,-0.48023146390914917,0.036943577229976654,0.06015719100832939,-0.4199809432029724,-0.21415355801582336,0.020940687507390976,0.1493161916732788,-0.04352645203471184,-0.4049241542816162,-0.09166506677865982,0.15045461058616638,0.05770004168152809,0.30848586559295654],[0.1728222370147705,-0.15445974469184875,-0.432184636592865,-0.03818690776824951,-0.30299901962280273,0.12098690867424011,0.3750755488872528,0.11471770703792572,-0.02509920299053192,0.14665646851062775,-0.11049367487430573,0.09197568893432617,0.3897595703601837,0.0028292282950133085,0.28301140666007996,0.09212352335453033,-0.4121871292591095,-0.2461606115102768,-0.20520740747451782,-0.5520638823509216,-0.2742208242416382,0.10901161283254623,-0.47713932394981384,-0.2893885374069214,0.20968571305274963,-0.29907479882240295,0.19692371785640717,-0.2712656259536743,-0.29437509179115295,0.19583365321159363,0.11384911835193634,0.32714876532554626],[0.04664865508675575,0.2120930701494217,-0.27005553245544434,-0.33086422085762024,0.11382023245096207,0.1981172114610672,0.33943405747413635,0.02286340855062008,-0.05104328691959381,0.06137729436159134,-0.19046415388584137,0.3678246736526489,0.20152808725833893,0.03378773853182793,0.1817774921655655,-0.014428670518100262,-0.4602959156036377,0.2403213381767273,0.09006527811288834,0.04666518419981003,-0.07387297600507736,0.16068559885025024,-0.20784711837768555,-0.4913455545902252,0.18368804454803467,-0.19414366781711578,-0.289772093296051,0.16661667823791504,0.31168580055236816,0.019106954336166382,0.1852002739906311,0.00934150256216526],[-0.0789637491106987,-0.04205278679728508,-0.011815623380243778,0.03799206763505936,0.27398183941841125,0.26089227199554443,-0.2090228646993637,0.054893504828214645,-0.25509631633758545,0.07150337845087051,-0.12288720905780792,0.3272569179534912,-0.022179191932082176,-0.18356294929981232,-0.2838258445262909,-0.011915678158402443,-0.12848816812038422,-0.21716800332069397,-0.20203888416290283,-0.07037729024887085,-0.2870256304740906,0.28398337960243225,-0.043396804481744766,-0.4540203809738159,-0.21332629024982452,0.37944215536117554,-0.16071757674217224,-0.21140974760055542,0.21431148052215576,0.3752557933330536,0.29354995489120483,0.2379235178232193],[-0.02319355122745037,-0.17339909076690674,0.09324686974287033,0.00585067318752408,-0.009399743750691414,0.16728556156158447,-0.1567906141281128,-0.00026481153327040374,-0.21772728860378265,-0.002009088872000575,-0.18994547426700592,-0.15226873755455017,-0.15303373336791992,0.03254213556647301,0.07691652327775955,0.011206761933863163,0.20130382478237152,-0.02367088943719864,-0.0611262209713459,0.14485132694244385,-0.09284819662570953,0.20195192098617554,-0.2172280102968216,0.2060672789812088,-0.19801650941371918,0.15818378329277039,0.0016487163957208395,0.22042128443717957,-0.17927773296833038,0.00506008742377162,0.20571061968803406,0.0012437275145202875],[0.2588125467300415,0.19872519373893738,-0.16146114468574524,-0.04431632533669472,0.1992628425359726,0.25673845410346985,-0.35732248425483704,-0.2270275503396988,0.4360182285308838,0.43930813670158386,0.048064786940813065,0.007737470790743828,-0.15860159695148468,-0.14169509708881378,0.0747838020324707,-0.28745657205581665,-0.13346970081329346,-0.2458266168832779,0.2554769217967987,0.2705877125263214,0.24691785871982574,0.16201487183570862,-0.27424561977386475,0.0734674409031868,0.26494529843330383,-0.329008549451828,0.17648933827877045,0.04499064013361931,0.27684009075164795,0.23889657855033875,0.015983998775482178,-0.12459594756364822],[0.29557785391807556,0.26341766119003296,-0.44974637031555176,-0.46499890089035034,-0.08122923225164413,0.2775021493434906,0.30467745661735535,-0.2731284499168396,0.08562740683555603,-0.14001351594924927,0.24149322509765625,0.23026099801063538,0.22939074039459229,0.06004868075251579,-0.09550047665834427,-0.3577665388584137,-0.5152438282966614,0.3158503472805023,0.29935652017593384,0.15762129426002502,0.37018898129463196,0.03538646921515465,0.07492975145578384,0.1441652625799179,0.22750601172447205,-0.16330815851688385,-0.21392156183719635,-0.3814941942691803,0.3529379665851593,0.05692112445831299,-0.18524153530597687,0.08040904998779297],[0.021305914968252182,-0.029710983857512474,-0.15538787841796875,0.04168686270713806,0.0010253371438011527,0.0906624123454094,0.001014595734886825,0.13527216017246246,0.004739589057862759,0.006316185928881168,0.1495920717716217,-0.014687241986393929,-0.1433182656764984,-0.20689615607261658,0.08160989731550217,0.02203172631561756,0.05627429112792015,-0.09859149158000946,-0.14193901419639587,-0.21573908627033234,-0.0326211042702198,0.012885996140539646,-0.017996227368712425,-0.006616928614675999,0.1659666895866394,-0.03353727608919144,0.0006036520353518426,0.0967555046081543,-0.016695547848939896,0.022630488499999046,0.14119960367679596,0.19351603090763092]],"b":[-0.2603590488433838,0.23242589831352234,0.1292049139738083,-0.03063497133553028,-0.03266667202115059,0.26950719952583313,0.0373031385242939,-0.043363407254219055,0.15717962384223938,-0.12251673638820648,-0.20978932082653046,-0.1816261261701584,-0.2533082067966461,-0.32290875911712646,-0.2137330174446106,0.29838138818740845,-0.012502336874604225,-0.15362146496772766,0.20780742168426514,0.19900478422641754,0.13204462826251984,-0.20836186408996582,-0.07089226692914963,-0.15412159264087677,-0.1981928050518036,-0.058122165501117706,-0.044111769646406174,-0.16037897765636444,-0.2887967824935913,-0.010537760332226753,-0.11540259420871735,-0.026057615876197815]},{"W":[[0.07391533255577087,-0.09230402857065201,-0.20625846087932587,0.35091376304626465,0.05773390084505081,-0.4339087903499603,0.41538092494010925,0.44766858220100403,-0.19256633520126343,-0.005892923567444086,0.160074383020401,0.3083341419696808,-0.09627621620893478,-0.15417709946632385,-0.023178938776254654,0.12077245861291885],[0.14575906097888947,-0.09141760319471359,0.0036273698788136244,0.2327026128768921,-0.2664920389652252,-0.19656452536582947,0.16132241487503052,0.3784937560558319,0.00048662934568710625,0.08051019161939621,-0.3301341235637665,0.01770789362490177,0.07549070566892624,-0.08691474795341492,-0.10719430446624756,-0.026689846068620682],[-0.3903742730617523,0.10472715646028519,-0.1026705801486969,-0.20731067657470703,-0.2766666114330292,0.47347116470336914,0.07244504243135452,0.22157983481884003,0.10301750898361206,-0.02879650890827179,-0.32294461131095886,0.023642119020223618,-0.00022535459720529616,0.09408681839704514,-0.04606940969824791,-0.271630197763443],[-0.20580780506134033,0.13462696969509125,0.03243124112486839,-0.03424234688282013,-0.1365550011396408,0.5415747165679932,0.11969728767871857,-0.04048613831400871,-0.1673302799463272,-0.25983160734176636,-0.20795267820358276,-0.20829078555107117,-0.31963270902633667,-0.24775713682174683,-0.2791377902030945,0.29537057876586914],[-0.34944385290145874,0.044852256774902344,-0.06627719104290009,0.40092402696609497,-0.22984282672405243,-0.06861022114753723,0.4129481911659241,0.3632781505584717,0.1188996285200119,-0.06183052435517311,-0.298862099647522,0.20248445868492126,0.364364355802536,0.027722954750061035,0.10951635241508484,-0.047115225344896317],[0.25862425565719604,-0.1853754222393036,-0.1372014284133911,0.005486073903739452,0.10236573219299316,-0.22262728214263916,-0.21429944038391113,0.14329692721366882,-0.061820100992918015,0.1284506767988205,-0.27748653292655945,0.03915640711784363,0.0746002197265625,-0.2398117184638977,-0.004052439238876104,-0.1673865020275116],[-0.21998226642608643,0.4141353964805603,-0.137450709939003,0.267262727022171,-0.1004270613193512,0.0963839665055275,0.12403159588575363,0.148673877120018,-0.0017742164200171828,0.011125076562166214,-0.17187757790088654,0.35251492261886597,0.28307268023490906,0.40115615725517273,-0.17217706143856049,0.24193918704986572],[0.3946087956428528,-0.3582557737827301,-0.27429378032684326,0.2524360120296478,0.14318756759166718,0.16967783868312836,-0.18934282660484314,0.30321645736694336,-0.10820239037275314,-0.1484515368938446,-0.12977024912834167,0.3012850284576416,0.19311276078224182,0.1205427274107933,0.0016628506127744913,0.3713224232196808],[-0.00676623685285449,0.030618198215961456,-0.006539542693644762,0.022095873951911926,-0.015797382220625877,-0.23420220613479614,0.2919295132160187,0.1251811534166336,-0.09119140356779099,0.40390193462371826,-0.11381376534700394,0.12909618020057678,0.3831462562084198,0.1527581661939621,-0.1853557676076889,0.41310617327690125],[0.1492941826581955,-0.3376808166503906,-0.24829967319965363,0.3412853479385376,0.06001626327633858,-0.10683614015579224,0.4228718876838684,0.35382869839668274,-0.13720351457595825,0.009737989865243435,-0.211008220911026,0.2974756062030792,-0.2111022025346756,0.1515239179134369,0.2170741856098175,0.3968898355960846],[-0.1337609738111496,0.4836999773979187,-0.16191621124744415,0.22299841046333313,-0.2867439091205597,0.14537844061851501,0.3171015679836273,-0.07757256180047989,-0.09280931949615479,0.14957527816295624,0.1343521922826767,0.12160094827413559,0.20767435431480408,-0.014929276891052723,-0.19255705177783966,-0.016279244795441628],[-0.16163457930088043,0.18833552300930023,0.047070663422346115,-0.009212488308548927,0.03655298054218292,0.26287582516670227,-0.18096721172332764,0.1361335963010788,0.0002071986673399806,0.1401827186346054,-0.21971093118190765,0.32155758142471313,0.3616809844970703,0.12822385132312775,0.2103520929813385,0.3763107657432556],[0.22791090607643127,-0.22931721806526184,0.043438319116830826,0.14068323373794556,-0.05426568165421486,0.11286124587059021,0.28945237398147583,0.36818429827690125,-0.004463499877601862,-0.2227689027786255,0.3081572949886322,0.30162304639816284,-0.20638754963874817,0.36607828736305237,0.3304879665374756,0.08444322645664215],[0.019277231767773628,0.09936242550611496,-0.1965266615152359,-0.185711070895195,0.17906804382801056,-0.22227522730827332,-0.18764784932136536,-0.045296162366867065,0.0027836442459374666,0.25814640522003174,-0.13758599758148193,-0.15682461857795715,0.08065732568502426,-0.07503820955753326,-0.23565605282783508,-0.08655191957950592],[-0.29431623220443726,-0.03754835203289986,-5.0094644393539056e-05,-0.11266947537660599,0.2504109740257263,0.05110054463148117,0.09677305817604065,0.2191515564918518,-0.22290867567062378,0.08946558088064194,-0.2745325267314911,0.27267178893089294,-0.33222702145576477,-0.10529457032680511,-0.3597295880317688,0.3698084056377411],[-0.050719983875751495,0.31096309423446655,-0.3271715044975281,0.04648474231362343,-0.25287866592407227,0.47661858797073364,-0.3251139223575592,-0.15270215272903442,-0.20800501108169556,-0.06636994332075119,-0.03862371668219566,-0.38638511300086975,0.08217518031597137,-0.012747246772050858,-0.07582896202802658,-0.13762982189655304],[-0.10410280525684357,0.2504953145980835,-0.1350909173488617,-0.22535476088523865,0.3007242679595947,0.5200393199920654,-0.051464010030031204,-0.05799216777086258,0.031671274453401566,0.0028468051459640265,-0.3910956084728241,-0.17182360589504242,0.16983741521835327,0.001141738728620112,-0.2888571619987488,-0.09515392780303955],[-0.1351655125617981,0.0257240142673254,-0.21869181096553802,-0.22530005872249603,0.2654585540294647,-0.26035580039024353,0.15671877562999725,-0.11193827539682388,-0.16876721382141113,-0.11641020327806473,0.11821918934583664,0.303263396024704,0.2833409011363983,0.004272877238690853,0.1865835040807724,-0.1435895562171936],[-0.11577516794204712,0.44137004017829895,-0.22296775877475739,-0.313120037317276,-0.1380838006734848,-0.22039566934108734,-0.14506013691425323,0.15730957686901093,-0.010432938113808632,0.3039316236972809,0.19611889123916626,-0.048173222690820694,-0.11430241167545319,-0.037955477833747864,0.1096436157822609,-0.09569957107305527],[0.10960016399621964,0.1372808963060379,0.004938051570206881,-0.019835909828543663,-0.12620949745178223,0.46861758828163147,0.293779194355011,-0.10905057936906815,0.1492454707622528,0.08636660128831863,0.17493025958538055,0.2890254557132721,-0.0015214878367260098,-0.2990473806858063,-0.12909230589866638,0.10261634737253189],[0.1516503542661667,-0.062031339854002,-0.14454707503318787,0.2783649265766144,0.40637072920799255,0.07020485401153564,-0.09359170496463776,-0.04791903868317604,-0.21953216195106506,0.36798521876335144,-0.29224133491516113,0.12142685055732727,-0.09577877074480057,0.11358853429555893,0.16695274412631989,0.29801997542381287],[-0.2044251561164856,-0.4499591588973999,-0.167257621884346,0.3768906593322754,0.31433752179145813,0.012254304252564907,0.1509256511926651,0.22432704269886017,-0.1232791617512703,0.41276752948760986,-0.11683355271816254,0.006805852521210909,0.08662984520196915,-0.3390105366706848,-0.16565652191638947,0.28937971591949463],[-0.2640021741390228,0.3281933665275574,-0.08409704267978668,-0.15295782685279846,-0.1731305569410324,0.12115661054849625,0.015094014815986156,-0.1155640110373497,0.007661475334316492,-0.04214544966816902,0.08565780520439148,0.18391241133213043,0.11582202464342117,-0.2201385200023651,-0.41924840211868286,-0.2336917221546173],[0.04059503600001335,-0.06713657826185226,-0.00011909306340385228,0.041827283799648285,-0.13400132954120636,0.412303626537323,-0.1701354682445526,-0.14610899984836578,0.07025822252035141,0.0048825801350176334,0.11284429579973221,0.06625984609127045,-0.09914706647396088,0.14667868614196777,0.19300910830497742,0.21224108338356018],[-0.11330711841583252,-0.13695459067821503,-0.02973198890686035,-0.16621220111846924,0.34247851371765137,-0.3792659640312195,0.4419042468070984,0.10190156102180481,-0.11762767285108566,0.17272067070007324,0.1933407485485077,0.28018438816070557,0.3281228244304657,0.09996205568313599,0.21676281094551086,0.3636617958545685],[-0.09792497754096985,-0.13023704290390015,-0.03427785262465477,0.41327446699142456,0.3742382824420929,-0.37843015789985657,0.20152416825294495,0.38045281171798706,-0.12025975435972214,0.13708843290805817,0.2803882360458374,-0.2646600008010864,0.20135673880577087,-0.01947048492729664,0.3893333375453949,0.43206214904785156],[0.38807234168052673,0.2082005888223648,0.24510595202445984,0.3339930772781372,-0.11675725132226944,0.3436870872974396,-0.20705118775367737,0.16860243678092957,-0.0923948660492897,-0.14576663076877594,-0.3223860263824463,0.22131088376045227,-0.041622865945100784,0.22314313054084778,-0.21761678159236908,-0.026179848238825798],[0.05597938597202301,0.47320669889450073,-0.054784514009952545,-0.025382161140441895,0.27887752652168274,0.31161418557167053,-0.22639773786067963,-0.23085877299308777,0.15022791922092438,-0.2813400626182556,0.21151301264762878,-0.08324433118104935,0.2359171360731125,0.27956482768058777,0.374137282371521,-0.068562351167202],[0.23123110830783844,-0.1359647959470749,-0.03355586528778076,0.1339857280254364,0.3146093487739563,0.318634957075119,0.24240443110466003,-0.004039980936795473,-0.010449484921991825,0.2233511060476303,-0.2020656019449234,-0.23326869308948517,-0.06147798150777817,-0.12269643694162369,-0.07591567933559418,-0.13375605642795563],[-0.2564265727996826,-0.4714702069759369,0.3324209451675415,0.033951517194509506,-0.10123444348573685,0.05168749392032623,-0.07957284897565842,0.4168986976146698,0.10143612325191498,-0.17074443399906158,-0.12189098447561264,0.3493928909301758,0.3936383128166199,0.03519244119524956,0.20594938099384308,-0.12682825326919556],[0.4219561219215393,-0.3319385349750519,0.34301233291625977,0.18084509670734406,0.14984215795993805,-0.060535989701747894,-0.14704276621341705,-0.11406856775283813,-0.09763632714748383,-0.150161013007164,0.1537032574415207,-0.03445854410529137,-0.2443620264530182,0.44326043128967285,0.3487587869167328,0.3764369785785675],[0.4231262505054474,-0.2656966745853424,-0.08184856176376343,0.2474004477262497,0.20279240608215332,-0.30000582337379456,0.28521832823753357,-0.12770229578018188,-0.09579520672559738,0.0645560547709465,0.05773399770259857,0.11879073083400726,-0.23017196357250214,0.34261175990104675,-0.04569424316287041,-0.15694409608840942]],"b":[0.2633414566516876,0.5323110818862915,0.24173247814178467,0.13256977498531342,0.09529818594455719,0.21010474860668182,-0.2646229863166809,0.022062424570322037,-0.09002280980348587,-0.1835131049156189,0.12229660898447037,0.026266930624842644,-0.2989169955253601,-0.13308140635490417,0.17392541468143463,-0.2470754086971283]},{"W":[[0.4987967312335968],[-0.22850683331489563],[0.019526032730937004],[0.2000291794538498],[0.47128596901893616],[-0.37152668833732605],[0.3589751124382019],[0.18304088711738586],[-0.16320012509822845],[0.49151676893234253],[0.32877540588378906],[0.2738567292690277],[0.48960885405540466],[0.5314736366271973],[0.3410256803035736],[0.5299604535102844]],"b":[0.09039313346147537]}],"scaler_mean":[0.19316979139111937,0.17809479193606725,0.1985625048276658,0.03378125050337985,0.16447916666666668,0.37572916666666667,0.1971250029373914,0.08375,0.08072916666666667,0.6729884072889885,0.09902604232988475,0.20509374989584708,0.3770833333333333,0.33320834327489135,0.0,0.0815625,0.03354166716647645,0.0],"scaler_std":[0.09099026521071572,0.09094644381241665,0.0718216596389376,0.06256225378307592,0.3707098196693588,0.4843106027980728,0.14364331399891275,0.27701252228014844,0.272418737086824,0.0587807215194689,0.05071837463489514,0.37704455280053495,0.4846560564519478,0.04709606847864027,1.0,0.273697019701967,0.11086759504113827,1.0]}