{"layers":[{"W":[[-0.08276022970676422,0.30872130393981934,0.045635055750608444,-0.042003002017736435,-0.23352232575416565,-0.16606874763965607,-0.25925320386886597,0.3108823299407959,0.12176624685525894,0.1226218044757843,-0.35359853506088257,0.3842442035675049,0.3082759380340576,-0.11694294214248657,-0.22946223616600037,-0.3760536313056946,-0.30769816040992737,0.0958757996559143,0.0027762530371546745,-0.2799578607082367,0.1302024871110916,-0.21056155860424042,-0.24346335232257843,-0.2084546536207199,-0.019102102145552635,0.25164794921875,-0.3443463444709778,0.02791888453066349,0.09984542429447174,-0.3185376524925232,0.14670409262180328,-0.19288058578968048],[-0.345203161239624,0.26686543226242065,0.2026895433664322,0.10733157396316528,-0.15151605010032654,-0.20323260128498077,0.1612834930419922,0.019723189994692802,-0.20994120836257935,-0.08399613201618195,-0.34342989325523376,0.3453996777534485,-0.12883661687374115,0.19416490197181702,-0.16263803839683533,-0.13771934807300568,-0.11644240468740463,-0.1333218514919281,0.3160499632358551,0.06877212971448898,0.3620677888393402,0.2976110279560089,0.0031821776647120714,0.20930902659893036,-0.30425578355789185,-0.14838416874408722,-0.4516448974609375,-0.07804448902606964,-0.030922800302505493,-0.19993293285369873,0.30296045541763306,-0.07721861451864243],[-0.2134702056646347,0.04016057029366493,-0.3121011555194855,0.1228867769241333,-0.32899248600006104,0.37778323888778687,0.26768794655799866,-0.14562837779521942,-0.33656811714172363,0.19481238722801208,0.14919476211071014,0.22918206453323364,0.2775750756263733,-0.2077157348394394,-0.09213385730981827,-0.3622170388698578,0.16356362402439117,0.06948128342628479,-0.048388440161943436,-0.40791040658950806,-0.0846218541264534,-0.17646625638008118,0.09997614473104477,0.07916189730167389,0.18968462944030762,0.06428717821836472,-0.2759842574596405,0.21425236761569977,0.1831110566854477,0.06779665499925613,0.25349950790405273,0.02995992824435234],[0.056274931877851486,-0.05933302640914917,-0.4413807988166809,-0.38558635115623474,-0.30485835671424866,0.16411221027374268,-0.12264527380466461,0.08271761238574982,0.35652783513069153,-0.20341302454471588,-0.08753305673599243,0.2324192076921463,-0.15154576301574707,-0.22477437555789948,-0.1692853569984436,-0.38626939058303833,0.14394605159759521,0.30672699213027954,0.0773400142788887,0.13334950804710388,0.2804851233959198,-0.1436242014169693,0.18118007481098175,-0.09907371550798416,0.30069759488105774,0.33315110206604004,-0.28016045689582825,-0.2563096582889557,-0.1667257845401764,-0.06157770752906799,0.3172648847103119,0.34570759534835815],[-0.2820204496383667,0.07164784520864487,-0.17111706733703613,-0.3067013919353485,-0.2319832444190979,-0.05715710297226906,0.3701878786087036,-0.059028565883636475,0.06982871890068054,0.18218959867954254,-0.11908983439207077,0.3964584171772003,0.3968929052352905,-0.09231188148260117,-0.015470439568161964,-0.2892123758792877,-0.2982163429260254,-0.29757794737815857,0.14843501150608063,-0.17378579080104828,-0.35699495673179626,-0.18945620954036713,0.17283491790294647,-0.3066538870334625,-0.28470519185066223,-0.010134217329323292,0.3346799314022064,-0.23185445368289948,0.07435017079114914,0.23228782415390015,-0.22506782412528992,0.21684421598911285],[-0.13008402287960052,0.015781955793499947,0.1977463662624359,0.1452580690383911,-0.28500762581825256,0.1594560146331787,-0.1761690378189087,-0.28712165355682373,-0.3755917549133301,-0.028215661644935608,0.15046308934688568,-0.4037858843803406,-0.03253059461712837,-0.2598685920238495,0.03773872181773186,-0.07572736591100693,0.2791748046875,-0.13775527477264404,0.25381723046302795,-0.1351422220468521,-0.17404955625534058,-0.3060309588909149,0.3944235146045685,0.36590394377708435,-0.21860986948013306,0.037761837244033813,0.3712316155433655,0.06977666169404984,0.09191139042377472,-0.18390822410583496,-0.3629332482814789,0.21868228912353516],[0.21570926904678345,0.10279230028390884,-0.17485162615776062,-0.1909508854150772,0.12230519950389862,0.31558549404144287,0.34725236892700195,0.257009357213974,0.10441147536039352,-0.31184959411621094,-0.22854387760162354,0.34664714336395264,0.16337136924266815,-0.25264328718185425,-0.2701795995235443,0.01718716509640217,-0.43088895082473755,-0.250922292470932,0.10252992808818817,0.027412913739681244,0.15161344408988953,-0.24638032913208008,0.08790270239114761,-0.19816993176937103,-0.1995493322610855,0.2543104887008667,0.09122972190380096,0.30846038460731506,0.11163406819105148,0.07266805320978165,-0.21573852002620697,-0.05738955736160278],[-0.13370926678180695,-0.11199730634689331,0.22412146627902985,-0.1882358342409134,0.3310697078704834,0.14158818125724792,0.1571807861328125,-0.05779819190502167,0.10494343191385269,-0.03491368517279625,-0.2365127056837082,0.1875748485326767,-0.14061203598976135,-0.2499038726091385,0.08745691925287247,-0.38679248094558716,0.17698033154010773,0.36260026693344116,0.32923802733421326,-0.2479250133037567,-0.381944477558136,0.3563177287578583,-0.17296648025512695,0.19629411399364471,0.37733832001686096,0.29097506403923035,-0.29647690057754517,-0.132753387093544,0.28604939579963684,-0.10664168745279312,-0.282261461019516,0.025149794295430183],[0.3557606041431427,0.18524959683418274,-0.06535770744085312,-0.3932556211948395,0.08570984750986099,0.379411906003952,-0.19079051911830902,0.06780149042606354,0.3251204490661621,0.2034076303243637,0.11308635026216507,0.17928801476955414,-0.019824614748358727,-0.06334565579891205,0.20052111148834229,0.06502342969179153,0.13486920297145844,0.3095150887966156,0.08038470149040222,-0.1745869666337967,0.1603972315788269,0.0841941311955452,0.050915952771902084,0.07870996743440628,0.23136518895626068,-0.06581008434295654,-0.07537756860256195,-0.33443567156791687,0.05044615641236305,-0.2693384289741516,-0.10485927015542984,0.08477459102869034],[-0.13532745838165283,0.09700518846511841,-0.4442351758480072,-0.4271129369735718,0.22971029579639435,-0.03422059863805771,-0.19664986431598663,0.07679557055234909,0.23717090487480164,-0.19895561039447784,0.06372735649347305,-0.22514507174491882,-0.2273208051919937,0.10135548561811447,0.06015116721391678,-0.058510955423116684,-0.012085720896720886,0.4024924635887146,0.11719845980405807,-0.2699149549007416,0.256791353225708,-0.11867742240428925,-0.15793205797672272,-0.4224124848842621,-0.2780623733997345,0.38025742769241333,0.13900497555732727,0.13246899843215942,-0.01601160317659378,-0.2334257811307907,-0.15481437742710114,-0.1177954450249672],[0.10821573436260223,0.21456392109394073,0.0008516269735991955,-0.2648042142391205,0.3814508616924286,0.21485520899295807,0.11495703458786011,0.14165650308132172,0.006890703458338976,-0.11696969717741013,-0.11955424398183823,0.24350927770137787,-0.2677590548992157,-0.18187710642814636,-0.285887748003006,-0.4706598222255707,0.07758527994155884,0.20696726441383362,0.07543085515499115,-0.43043944239616394,0.05367116630077362,0.043302297592163086,-0.3582262098789215,-0.17693541944026947,0.00800939928740263,0.13928930461406708,-0.042423516511917114,-0.3284517526626587,-0.12517331540584564,0.13835056126117706,0.06516484171152115,0.29353272914886475],[0.17332586646080017,-0.16646812856197357,-0.41141653060913086,-0.015501400455832481,-0.3067123591899872,0.11941087245941162,0.37015393376350403,0.11370114237070084,-0.02128380350768566,0.13818998634815216,-0.053980275988578796,0.08670847862958908,0.38239359855651855,-0.0016059449408203363,0.3037486672401428,0.12829545140266418,-0.3650825023651123,-0.24200281500816345,-0.198552668094635,-0.4987335801124573,-0.2560141682624817,0.16604025661945343,-0.41299569606781006,-0.25163570046424866,0.25393146276474,-0.3070257902145386,0.19464202225208282,-0.2042822539806366,-0.31384778022766113,0.1910853385925293,0.05871930345892906,0.32222041487693787],[0.07428967952728271,0.21124771237373352,-0.2510501444339752,-0.31736987829208374,0.13498453795909882,0.2492503672838211,0.35984817147254944,0.014960063621401787,-0.037026651203632355,0.09500931203365326,-0.13057880103588104,0.3630726933479309,0.2013230174779892,0.025207361206412315,0.1755528599023819,0.01937967538833618,-0.4376615881919861,0.26103365421295166,0.09383651614189148,0.06970075517892838,-0.058129068464040756,0.2617773711681366,-0.1718890219926834,-0.4599919021129608,0.24313148856163025,-0.21151527762413025,-0.2730224132537842,0.2510179579257965,0.37237095832824707,0.0019622568506747484,0.17606836557388306,0.03425765037536621],[-0.0795295313000679,-0.050287239253520966,0.008527369238436222,0.06067772954702377,0.26783832907676697,0.26178672909736633,-0.21612687408924103,0.04903687164187431,-0.2589353919029236,0.06883320957422256,-0.06561647355556488,0.3244992196559906,-0.029058706015348434,-0.1856449693441391,-0.26078513264656067,0.023949433118104935,-0.08590127527713776,-0.2212493121623993,-0.19630266726016998,-0.02098863199353218,-0.29147204756736755,0.2739741802215576,0.02191128022968769,-0.41650936007499695,-0.24314893782138824,0.3757413625717163,-0.1430438756942749,-0.14277026057243347,0.1800399124622345,0.3701770305633545,0.2767297029495239,0.22532561421394348],[-0.035651326179504395,-0.20058472454547882,0.11581256240606308,0.011497574858367443,-0.016962863504886627,0.19421657919883728,-0.1832568347454071,-0.0007971457089297473,-0.2464747279882431,-0.004736472386866808,-0.21776790916919708,-0.1785230040550232,-0.17932437360286713,0.04724345728754997,0.09799840301275253,0.01959277130663395,0.22952421009540558,-0.036257799714803696,-0.0804438516497612,0.17074117064476013,-0.11538095027208328,0.23019421100616455,-0.24596019089221954,0.23444615304470062,-0.22612476348876953,0.18471382558345795,0.004008464049547911,0.24925026297569275,-0.2066979706287384,0.010203864425420761,0.23407776653766632,0.003152775578200817],[0.2099454700946808,0.24053579568862915,-0.13573198020458221,-0.027278048917651176,0.1691296547651291,0.2407936304807663,-0.3609970808029175,-0.22168540954589844,0.4164479672908783,0.3846312165260315,0.03711805120110512,0.014360534027218819,-0.14296074211597443,-0.15562567114830017,0.051432427018880844,-0.23985998332500458,-0.08995236456394196,-0.2692684531211853,0.23203760385513306,0.30305036902427673,0.22242437303066254,0.13219834864139557,-0.2551700472831726,0.10845271497964859,0.2395065724849701,-0.3081841766834259,0.18737196922302246,0.1387953907251358,0.2578567564487457,0.2275894731283188,0.013426097109913826,-0.10459201037883759],[0.3118397891521454,0.26545318961143494,-0.42897874116897583,-0.44231387972831726,-0.08186596632003784,0.27907612919807434,0.30571895837783813,-0.266853392124176,0.08696777373552322,-0.11223646998405457,0.2998732626438141,0.2404472529888153,0.2268100082874298,0.05796704813838005,-0.07233411818742752,-0.32007625699043274,-0.46235811710357666,0.30395495891571045,0.303707480430603,0.22028453648090363,0.37220293283462524,0.0759434774518013,0.07926970720291138,0.18191967904567719,0.20446176826953888,-0.1587943583726883,-0.18833066523075104,-0.310065358877182,0.33629128336906433,0.06105383113026619,-0.20475652813911438,0.09716039150953293],[0.03323403745889664,-0.04378984495997429,-0.1817891150712967,0.058145672082901,0.0026702398899942636,0.11301183700561523,0.002646049251779914,0.16065742075443268,0.009668649174273014,0.012243686243891716,0.1757172793149948,-0.024462047964334488,-0.16912998259067535,-0.2353021204471588,0.10314856469631195,0.03416721150279045,0.07496324926614761,-0.12158523499965668,-0.16767960786819458,-0.24442550539970398,-0.04733918607234955,0.02197023294866085,-0.028912724927067757,-0.012720194645226002,0.1928413212299347,-0.048447538167238235,0.0016798919532448053,0.11960502713918686,-0.0271807461977005,0.03493350371718407,0.1669018268585205,0.22146674990653992]],"b":[-0.27345913648605347,0.22994931042194366,0.10843633115291595,-0.05332060158252716,-0.03283300623297691,0.26969772577285767,0.04097924381494522,-0.04870764538645744,0.15580809116363525,-0.15030041337013245,-0.2684724032878876,-0.18824884295463562,-0.2689576745033264,-0.32082706689834595,-0.23690348863601685,0.26069164276123047,-0.06547416746616364,-0.13017673790454865,0.20237474143505096,0.1576072722673416,0.16234968602657318,-0.2073279470205307,-0.08996737748384476,-0.19187511503696442,-0.1908285766839981,-0.0789513885974884,-0.06970328837633133,-0.23180529475212097,-0.2656724452972412,-0.014670105651021004,-0.12242849916219711,-0.0460779182612896]},{"W":[[0.07232269644737244,0.021996615454554558,-0.2346435934305191,0.3194650113582611,0.04957551881670952,-0.3975136876106262,0.37525129318237305,0.41085121035575867,-0.22048325836658478,-0.12779173254966736,0.16423645615577698,0.2794329822063446,-0.11076072603464127,-0.13505956530570984,-0.08048909157514572,0.08850979059934616],[0.13427133858203888,-0.1311931312084198,0.02591116353869438,0.22206103801727295,-0.27340027689933777,-0.2027144730091095,0.18484729528427124,0.3442160189151764,0.0013864440843462944,0.07693976908922195,-0.32951620221138,0.011417126283049583,0.07053585350513458,-0.09863030910491943,-0.11483632773160934,-0.03493567928671837],[-0.3932594358921051,0.05804288387298584,-0.1259748488664627,-0.20703621208667755,-0.277474582195282,0.4355224072933197,0.09500227123498917,0.2001049518585205,0.12634755671024323,-0.034033726900815964,-0.3187982141971588,-0.0025842718314379454,-0.00023245708143804222,0.10897304862737656,-0.043804705142974854,-0.27753910422325134],[-0.20931430160999298,0.08733904361724854,0.047108981758356094,-0.03467341512441635,-0.14213114976882935,0.5024893879890442,0.14184831082820892,-0.07558288425207138,-0.19426320493221283,-0.2796761095523834,-0.20595726370811462,-0.24312053620815277,-0.28667333722114563,-0.22351504862308502,-0.27851322293281555,0.29455503821372986],[-0.34803956747055054,0.11754979938268661,-0.05338830500841141,0.3525131940841675,-0.25278735160827637,-0.03543467819690704,0.40021079778671265,0.34098052978515625,0.14331944286823273,-0.14810976386070251,-0.3240260183811188,0.18615229427814484,0.34207263588905334,0.03982408717274666,0.10196991264820099,-0.06840617954730988],[0.25619494915008545,-0.14555004239082336,-0.13765786588191986,-0.0016351816011592746,0.0782962217926979,-0.2134685218334198,-0.2199380099773407,0.13982972502708435,-0.08122386038303375,0.13603104650974274,-0.27139154076576233,0.03766952082514763,0.0735679343342781,-0.24263419210910797,-0.028726311400532722,-0.18078100681304932],[-0.22992923855781555,0.40820038318634033,-0.138311505317688,0.2573712170124054,-0.10830995440483093,0.10130491107702255,0.11999271810054779,0.13876953721046448,-0.00426514632999897,0.01573595404624939,-0.18813127279281616,0.34839701652526855,0.28043073415756226,0.3997664153575897,-0.19746822118759155,0.22951975464820862],[0.38482561707496643,-0.34084585309028625,-0.2795473635196686,0.2451687902212143,0.1309920698404312,0.17642447352409363,-0.1823153793811798,0.2884421646595001,-0.13190729916095734,-0.15651921927928925,-0.14134827256202698,0.29586416482925415,0.18773561716079712,0.1122138500213623,-0.018444860354065895,0.3520765006542206],[-0.0062851146794855595,0.07987397909164429,-0.012597974389791489,0.009672282263636589,0.05039150267839432,-0.21403178572654724,0.27335649728775024,0.10156606882810593,-0.11358557641506195,0.3580690026283264,-0.011933834291994572,0.11587856709957123,0.3787035644054413,0.19414637982845306,-0.16466540098190308,0.3954111337661743],[0.15234962105751038,-0.2630251348018646,-0.25673526525497437,0.30927014350891113,0.05258398875594139,-0.07109341025352478,0.3901396691799164,0.3133871555328369,-0.1626937985420227,-0.07774457335472107,-0.21272152662277222,0.26931092143058777,-0.22897501289844513,0.1591120958328247,0.18419840931892395,0.3671334385871887],[-0.1351415365934372,0.40622827410697937,-0.18861405551433563,0.2044684737920761,-0.28938552737236023,0.06832005083560944,0.3016732931137085,-0.13332030177116394,-0.11533882468938828,0.1282348781824112,0.13673986494541168,0.08880744129419327,0.14979307353496552,0.002585091395303607,-0.1943739354610443,-0.03804842010140419],[-0.16751982271671295,0.19563722610473633,0.04597100988030434,-0.013620694167912006,0.03183294087648392,0.2671550214290619,-0.1876692920923233,0.12339050322771072,0.0006347521557472646,0.13679218292236328,-0.24851854145526886,0.3180752992630005,0.35834988951683044,0.12457047402858734,0.19842015206813812,0.36492782831192017],[0.22443564236164093,-0.20469188690185547,0.041986674070358276,0.13908441364765167,-0.06282655894756317,0.1113937497138977,0.267257422208786,0.3647453188896179,-0.009202022105455399,-0.21634060144424438,0.3095632493495941,0.30029618740081787,-0.20902550220489502,0.36306288838386536,0.30384042859077454,0.10073208808898926],[0.024979088455438614,0.07352462410926819,-0.22458326816558838,-0.1826016753911972,0.1774221658706665,-0.24216189980506897,-0.15491391718387604,-0.09771566092967987,0.006222876254469156,0.2608674466609955,-0.1353919804096222,-0.1520220786333084,0.09291276335716248,-0.07051382958889008,-0.20919902622699738,-0.06752142310142517],[-0.2847062051296234,-0.07331623136997223,-0.00016283987497445196,-0.12208840250968933,0.2523256540298462,0.0285484679043293,0.11088278889656067,0.1698329597711563,-0.25181177258491516,0.079074427485466,-0.2644064426422119,0.2763223946094513,-0.32059383392333984,-0.09739754348993301,-0.3370301127433777,0.3697959780693054],[-0.05418414622545242,0.2598959803581238,-0.3272537291049957,0.05335032939910889,-0.2583008110523224,0.4516950845718384,-0.27992162108421326,-0.18064136803150177,-0.23644697666168213,-0.06990305334329605,-0.041367363184690475,-0.38525980710983276,0.10182526707649231,-0.009728663600981236,-0.06040821596980095,-0.11106044799089432],[-0.058575861155986786,0.20932531356811523,-0.1604662388563156,-0.26076990365982056,0.301608681678772,0.46627289056777954,-0.030774658545851707,-0.08369982242584229,0.04618566855788231,0.0032796564046293497,-0.2660752236843109,-0.17141927778720856,0.1905728429555893,0.021552305668592453,-0.28724637627601624,-0.06933807581663132],[-0.13014833629131317,0.018446553498506546,-0.24746863543987274,-0.2223711609840393,0.27071115374565125,-0.2561236619949341,0.17848555743694305,-0.12701566517353058,-0.19576096534729004,-0.11668968200683594,0.2281782180070877,0.31038129329681396,0.2891608476638794,0.035996802151203156,0.19456705451011658,-0.14598169922828674],[-0.12479211390018463,0.4180925786495209,-0.25187256932258606,-0.3362945020198822,-0.14885970950126648,-0.22973264753818512,-0.15151380002498627,0.13363203406333923,-0.01847655326128006,0.31268996000289917,0.20490412414073944,-0.05140204727649689,-0.1135794073343277,-0.06195670738816261,0.12094879895448685,-0.10469335317611694],[0.1351684182882309,0.05877908319234848,0.010000854730606079,-0.04254111647605896,-0.0953621193766594,0.4147455394268036,0.28563493490219116,-0.14885644614696503,0.1753537505865097,0.043339964002370834,0.31225934624671936,0.2829650938510895,0.011855633929371834,-0.2141627073287964,-0.10062065720558167,0.09594351798295975],[0.14950089156627655,-0.16514915227890015,-0.17042149603366852,0.2796975076198578,0.4068581759929657,0.026548372581601143,-0.13479061424732208,-0.08737741410732269,-0.2483343780040741,0.35959330201148987,-0.20079754292964935,0.11586695909500122,-0.09909523278474808,0.12202116847038269,0.1690056025981903,0.29279792308807373],[-0.11369093507528305,-0.40189793705940247,-0.23663674294948578,0.3474387526512146,0.313424676656723,0.044239625334739685,0.13928186893463135,0.1902904361486435,-0.1479712873697281,0.34639009833335876,-0.10429584980010986,-0.015028699301183224,0.07490667700767517,-0.21975530683994293,-0.1616727113723755,0.26290228962898254],[-0.35480135679244995,0.2646496593952179,-0.10586721450090408,-0.15867497026920319,-0.19494661688804626,0.06670142710208893,0.10304385423660278,-0.12809526920318604,0.01434523705393076,-0.040524598211050034,0.09227301925420761,0.21928386390209198,0.14503760635852814,-0.2372504323720932,-0.4069347381591797,-0.2311377376317978],[0.037526581436395645,-0.12357770651578903,-0.00037622544914484024,0.018461352214217186,-0.1411164104938507,0.3631265461444855,-0.17957310378551483,-0.18465088307857513,0.09064279496669769,-0.02415069006383419,0.11501975357532501,0.026600157842040062,-0.07771928608417511,0.17360761761665344,0.1918415129184723,0.2061251699924469],[-0.07905881106853485,-0.08778184652328491,-0.04381563514471054,-0.18612565100193024,0.36769339442253113,-0.34255364537239075,0.4201441705226898,0.07222327589988708,-0.14196623861789703,0.10743419826030731,0.3167876899242401,0.2560024559497833,0.31525468826293945,0.21005180478096008,0.21782363951206207,0.33661606907844543],[-0.10350392758846283,-0.12598466873168945,-0.0865243598818779,0.409620463848114,0.3732864260673523,-0.36894872784614563,0.19703036546707153,0.3699171841144562,-0.14476534724235535,0.11891401559114456,0.2857556641101837,-0.26501619815826416,0.19910265505313873,-0.05024433135986328,0.3779749870300293,0.4200965166091919],[0.37615153193473816,0.16337814927101135,0.24263638257980347,0.30337801575660706,-0.137390598654747,0.34278765320777893,-0.22681894898414612,0.15632551908493042,-0.1148899644613266,-0.2819492816925049,-0.31926223635673523,0.2180744856595993,-0.04187057167291641,0.21521250903606415,-0.26859650015830994,-0.037790026515722275],[0.048051029443740845,0.3914242088794708,-0.06495808809995651,-0.015004027634859085,0.2819015681743622,0.21934233605861664,-0.20408830046653748,-0.25362005829811096,0.17638403177261353,-0.26059168577194214,0.21053940057754517,-0.03230750933289528,0.30488356947898865,0.2773298919200897,0.3872436583042145,-0.060386400669813156],[0.2313985675573349,-0.04984632879495621,-0.03295031562447548,0.12672564387321472,0.3139938712120056,0.3245440721511841,0.2395433485507965,-0.005376143846660852,-0.018500573933124542,0.22160591185092926,-0.2196677327156067,-0.23320767283439636,-0.059797342866659164,-0.09875965118408203,-0.08214958012104034,-0.1408044993877411],[-0.2604224681854248,-0.2649329602718353,0.3312617242336273,0.014831330627202988,-0.1178271546959877,0.08853466063737869,-0.10368550568819046,0.4053393304347992,0.12464781105518341,-0.2828690707683563,-0.1347988396883011,0.34391674399375916,0.3931581676006317,0.0372791551053524,0.1406240463256836,-0.14360201358795166],[0.4175023138523102,-0.30791154503822327,0.30558568239212036,0.1809033453464508,0.1501116156578064,-0.04611016809940338,-0.10096777230501175,-0.15157392621040344,-0.12055538594722748,-0.14911052584648132,0.2704249620437622,-0.036142412573099136,-0.2438390702009201,0.44583359360694885,0.3529673218727112,0.3711896240711212],[0.41957372426986694,-0.2905210256576538,-0.0849500298500061,0.24623368680477142,0.20818203687667847,-0.2991945743560791,0.2937362790107727,-0.13299061357975006,-0.11856810003519058,0.06061016768217087,0.1515873223543167,0.11817248910665512,-0.23218581080436707,0.3398153483867645,-0.05168941244482994,-0.1585184633731842]],"b":[0.2651234567165375,0.49410954117774963,0.24115315079689026,0.13457180559635162,0.11997400224208832,0.18202349543571472,-0.23446384072303772,0.0037150427233427763,-0.09002280980348587,-0.17745164036750793,0.12937156856060028,0.026741039007902145,-0.28185945749282837,-0.15112362802028656,0.19093351066112518,-0.24955731630325317]},{"W":[[0.49402448534965515],[-0.17708376049995422],[0.016956442967057228],[0.17871423065662384],[0.4716128706932068],[-0.33188289403915405],[0.3333384096622467],[0.16482916474342346],[-0.18995457887649536],[0.5173873901367188],[0.4105837047100067],[0.2642984092235565],[0.4863578975200653],[0.5280342698097229],[0.3306397497653961],[0.5012444853782654]],"b":[0.10947268456220627]}],"scaler_mean":[0.19116927075122173,0.18828125015987704,0.19656250480252008,0.05680208466015756,0.1265625,0.37354166666666666,0.19312500287778675,0.06354166666666666,0.058958333333333335,0.6720124472305179,0.09412291705918809,0.1653229167723718,0.42354166666666665,0.3252395937498659,0.0,0.058229166666666665,0.02491666703795393,0.0],"scaler_std":[0.08450533091839577,0.09526522200133192,0.07321953842911899,0.09380599923019008,0.33248223049321757,0.4837440334831534,0.14643907156480582,0.2439346700735396,0.23554670081300932,0.0534186678294978,0.04714297311053086,0.33958092967473974,0.49411954349517645,0.043438710173699574,1.0,0.2341762814974387,0.09667381583146135,1.0]}